3.483399444970683434e-02
5.785765062338680403e-02
3.504584522444825767e-02
-2.129844846090030511e-02
-1.569209055189281776e-01
1.256291339027906795e-01
-3.179157787907936628e-02
-2.820708146496673716e-02
-5.151779952879576019e-02
6.610201310099214633e-02
3.070578835656739281e-01
3.670740785710876336e-02
-1.013951155159841105e-01
2.528127851029216694e-02
4.075472043887363310e-02
-2.161525640864594543e-03
2.852961389678188575e-01
8.902378313954989464e-02
1.275695658309607516e+00
6.121601670196817890e-01
1.421661822729748947e-01
1.190649255093733233e-01
-8.201003444148029509e-01
-9.012758516132923781e-01
3.245188959706473142e-01
-9.114400843311878386e-01
4.707762378935457015e+00
-1.635786278581893738e+00
-2.009148072478873726e+00
-1.876155092208275921e-01
1.451380805634725213e-01
7.072541297706907981e-01
-1.254592526621342907e+00
-7.989075898357640426e-01
-2.092941611497389331e+00
2.633972416338814071e+00
-5.004025844724126898e-02
-1.126033744514013182e-02
-8.183173979632910044e-02
5.487349123404172690e-02
3.179473396533297885e-02
3.094600389096045442e-02
2.820458936020878507e-02
9.513426924893231273e-02
-1.480423246757626710e-01
-7.009638713869183191e-02
8.337479164922041372e-03
-9.671217331702788855e-02
5.881186354867896232e-02
1.937437695487886219e-02
-2.237823302899039080e-02
8.238997155981769849e-02
-7.701846812347074023e-02
5.559505646185034650e-02
4.397672656566080363e-02
-1.260636037448284149e-03
9.749395810894090353e-02
-6.253357837231050820e-02
-2.379513507457066412e-02
-5.958954667518402346e-03
-5.695289811324019680e-02
-4.572969109557732670e-02
5.275108258904490088e-02
-5.505317037469649802e-03
3.235204701285123927e-03
-1.342350390554668781e-02
9.782582615692257330e-03
-1.318641316504081361e-02
-1.557656717713991855e-02
4.937994231508801950e-03
-5.357777238343158777e-02
7.620837531673273213e-02
9.366522511741717967e-04
-1.739240833063728376e-04
2.109029557160123705e-03
-1.332738055167319259e-03
3.949553454521760251e-03
1.684252373752106752e-03
-2.575873892353502080e-03
-3.662766256321723854e-04
4.225706353220343679e-03
2.993222616355590941e-03
-1.287274942891436080e-03
1.852096635568199409e-02
-2.164875348099860874e-02
-8.159345254651895196e-03
9.983172646608713674e-02
-1.065566272583393786e-01
1.221037964074826176e-01
7.842171474705146306e-01
4.767171296708370282e-02
-2.900702581589001752e-02
4.143097176340511389e-02
-3.273981105615250686e-02
3.510260452823966439e-04
6.625875639307163278e-02
-2.052525521204866948e-02
-3.071383685736793837e-02
-9.802526257317963065e-02
4.891615553264294820e-03
2.250417110624158140e-02
-1.014677152251936346e-02
-1.284107072234538099e-02
1.755818336222101511e-02
-3.006727234222984074e-02
-1.436383391263636178e-02
1.266514339057982566e-02
-1.982000867808371078e-02
3.493076975394131950e-02
-2.492813031650852745e-02
-3.486797553773995917e-02
-3.709021556331790377e-03
9.218743603147854307e-03
-3.880951535639032279e-02
7.208939166776694380e-04
-2.683212600688548999e-02
8.283137217975589106e-02
1.852410541338876393e-01
1.912971159444127045e-01
3.855157277107286729e-01
1.282404082441457316e-01
8.279610155726349618e-02
-1.455047448835500301e-02
1.768618200719192790e-01
2.361875267002160328e-01
2.772415958188267915e-01
-1.392329519609455599e-03
-4.638763454519004856e-04
2.573739489076685202e-03
-1.367655300075255344e-04
-2.506676330631725340e-03
-1.817225865443905779e-03
2.156132602764274531e-03
2.099303445506784521e-03
-5.535102506477785787e-04
2.719807005833818972e-03
-2.077348836333187240e-04
-1.524082717395762107e-03
-5.752909833379132691e-04
1.191974821021025630e-03
-1.734969307600571367e-03
2.267080829270430250e-04
-2.996798853459173729e-03
1.682009940807576744e-03
-9.430803514886328121e-02
-6.730232134281979861e-02
-1.141457913055240331e-01
7.343014967372928211e-05
-4.238446839525239485e-02
-2.468142437855092713e-02
5.409737747414484002e-03
2.551490914340108773e-01
-3.627421819491175592e-01
-5.640169418657118433e-02
2.637976877869294481e-02
9.858431902414342696e-02
9.369303730942965536e-02
1.026292635980299295e-01
-6.109085982906225371e-02
-9.075320171074965914e-02
1.546934573269541646e-01
-1.000659798838133552e-01
