7.667032455564777582e-03
1.091414798458359112e-06
1.154988488096116706e-01
3.257023321254385673e-04
6.695458065016890144e-04
1.525030795173136153e-02
3.138220319079635945e-01
-4.055242548751645248e-01
1.125365760663080694e+00
-3.324870552950644487e-01
1.304739757974392733e-01
-6.593787887274259463e-01
-5.194069405879057078e-01
5.765233415216004104e-02
-5.995544729934587647e-01
-1.113276856394109338e+00
-1.232042437167997218e+00
-7.165882585401445182e-01
-8.534294637077308732e-01
-1.113649932751048954e+00
-1.429092409858729873e+00
-1.203972346054280829e+00
-1.960048076874687795e-01
-1.761772010840166880e-01
3.844448564708523031e-01
1.164039021047238665e+00
-7.016429356180422516e-01
7.337435540087228203e-01
-4.807920531360397320e-01
1.076495909553628394e+00
-3.709497450648308603e-01
-7.063887652556489760e-01
4.161579986885396987e-01
3.104866771052910979e-01
-6.040126662919396150e-01
-1.404111661394060517e+00
-7.260678412842993534e-01
-5.661602264658525119e-01
-3.897521454168726973e-01
3.278511409587168690e-01
-2.962118545440785011e-01
5.371234004630152103e-01
-1.132589337125366358e+00
-1.004352584695180850e+00
-7.105425659081989753e-01
-1.213750798251606255e+00
-1.008109185502255922e+00
2.896407579349115080e-01
2.118928875476612794e-01
1.576443191687803766e-02
2.762827222171608255e-01
-3.828411287125653151e-01
-6.095601980703574396e-01
1.925395036959370310e-01
-7.167955835534998155e-01
-1.127380708954222488e+00
-1.855170302371539792e+00
-1.107461777831724836e+00
5.777894356396986453e-01
-7.289950996014007423e-01
-5.335376700855385401e-01
-5.376488556689749121e-01
-7.123360147099725426e-01
-3.905056470762908183e-01
2.940225091767522669e-01
4.684849707140389952e-02
-2.543668710483911188e-01
-4.747367926548760053e-01
1.777066450547663823e-02
-5.487998243478982019e-01
6.005657635462288008e-02
-4.423360401775343065e-01
1.031107445224034302e-01
3.152973207064999062e-01
1.225468534696691342e-01
-1.523210057909909765e-01
-2.332022190572731468e-01
-2.635346614641406043e-02
1.918163619967874434e+00
7.817136139118834315e-01
2.209534648984800287e-01
1.001889814493592962e-01
-1.242228651533809486e-01
8.689582572864804066e-02
2.462345280722087748e-01
2.017278250819564966e-01
-7.647340514336223305e-02
2.151318720947608398e-01
-3.001505661194926039e-02
-1.061398648310880599e+00
-2.472743949450714185e-01
3.733836837708716383e-02
-5.042733157069091698e-02
1.700799173799747155e-01
-7.761016747288523865e-02
-1.927829185537714429e-01
-4.598681499382623050e-01
2.411104146350694366e-01
-3.141378062700128093e-01
4.684979711429802102e-02
2.047982301727968302e-01
1.124831666000443153e-01
-2.718715163412201985e-01
-3.805747224754049696e-01
2.014368325533922310e-01
-4.712384902748620874e-01
